-0,227992575488981;-0,458979865982654;-0,229419619184648;-0,351565289241991;-0,471594613497888;0,483727523118131;0,297019842917575;0,0353736772832338;-0,33542010227005;0,0057671752319518;0,0505507907599912;0,343290978504015;-0,444678881179857;0,213052818883701;0,463562376780232;-0,0401177236531478;0,0725171699060673;-0,45926080036874;0,297997832669876;-0,107769634857666;-0,438072992459905;-0,0529917280902116;0,387253750528793;-0,00736452010803135;0,348246740572269;-0,277591114760186;-0,118872177143987;-0,23336948395398;-0,446391695619743;0,130411600987619;-0,0625294999044991;-0,360386775275872;0,373747194592723;-0,108088319938671;0,125671414949778;0,288080877060108;-0,0423898596979631;-0,12299736292241;0,305420394430598;0,298046742006227;-0,190579307121494;0,262022491433668;0,286301081434964;0,213190364983487;0,0784069227885487;0,0218241710783095;-0,251605797443355;0,227721033956726;-0,0947156509359905;0,447778780454667;0,0452272782778494;0,0236777707578977;-0,196509320147573;-0,0454334926537394;-0,0785644685749731;0,32499915260123;-0,346233616511446;0,277944900923383;-0,19981202981426;0,305996501262298;0,102599700262118;0,030389326871554;-0,018234627097023;0,0341682967423314;-0,431703324863549;-0,0890624339641363;0,469543783911291;0,163409438758814;-0,412618596066078;-0,324518500279877;-0,497727863955185;-0,304485467171523;-0,264681194799338;0,499951090663649;-0,417190327736172;-0,200095483893573;0,160707190474825;-0,325936614454694;0,41422855710342;-0,17357743050604;0,474014682683169;0,153406788899287;0,361346166982011;-0,39417047607441;-0,414815677290231;0,413792729337603;0,3361225448717;-0,0808193127535374;0,470476148636302;0,300672262348548;0,134314493571555;0,179665239378654;-0,42318533310815;0,4994238931683;-0,304552958255891;0,279031366006951;-0,219742881469309;-0,247867215307368;0,144893689847036;-0,332530643247315;0,0522803871670181;0,0849847637978312;0,140339630022803;-0,270197150656114;0,445506644409851;-0,150287254550628;-0,211641034442764;-0,196460410811221;-0,128243164917567;-0,3784689846814;-0,335708037873594;0,479702997943248;0,363716343819963;0,47376540069178;0,331981818579129;0,449192911362831;0,169043159889543;-0,124064151022613;-0,0510160259674378;-0,345496054201152;0,0748150211641635;0,0503630966648287;0,192933290122511;-0,213290858414625;0,0411670061485688;-0,177393103333839;-0,381300134063372;-0,264105087967638;0,30450404891954;-0,196221693743124;-0,480352602424264;-0,0914255942178078;0,0291696956982695;0,246759200350735;0,274142182326942;-0,110970081114662;-0,486932841123516;0,131543317638125;-0,339677120484261;0,235471577260397;0,125433763780367;0,0325829556829217;-0,45257614783597;0,348945133317702;0,136380300222142;0,154611495628306;0,315948895558691;-0,39695073379993;-0,332557925410829;-0,253745869618722;-0,390011793882592;0,404321269553304;0,30314881066007;-0,0096102559518117;0,0926543355885214;-0,498082709497811;0,39205147367532;-0,146369511562572;0,188635843195317;0,12289974774369;-0,268987120487256;-0,447535946475126;-0,000964459730761313;-0,432021471174444;-0,398116382257136;0,255717556344214;-0,0494666977550214;-0,383042856530772;-0,300376781635162;-0,0570481003062092;0,436125752486347;-0,462500157748582;-0,284387030538352;0,213512396772165;0,0290701820184803;-0,457767934518758;0,00293924450079874;0,343988156804809;0,150328841363233;0,386555510520262;0,00665800110747017;-0,484349400263442;-0,43154716255681;0,0582499185382621;-0,306209899860532;-0,384673871977569;0,105425595122122;-0,461220048349919;-0,345895135237786;0,272224891824753;-0,00302155478998162;0,159436670439056;0,442907474442808;0,0374231317720484;0,00445869774765273;0,0729697102554933;-0,466452584586317;0,479445323338474;0,247061515574838;0,380662743877928;-0,295921806616672;0,198991752089463;0,403426047835232;0,224490174895381;-0,189871622105069;-0,42751163613401;0,188708300091656;-0,410363586112095;0,461319562029708;0,0504222701072796;-0,00102195399860944;-0,45193668312949;0,203301647074195;0,302080332675055;-0,38375825336378;-0,284637720223813;0,484011216081684;0,440785621730977;0,374188428686088;0,486557489720433;-0,349708038777908;-0,0882466494051026;0,462852278707015;-0,0726016734599144;0,445973454483772;-0,223310917952708;-0,40540763219139;0,1781898376896;-0,290946300975488;0,456100471762987;-0,491315349932441;0,023493921162325;-0,403073358770028;0,269666097485305;0,182477317136935;0,307666249018007;-0,387775448098674;-0,156037337452191;-0,251878459356669;-0,378698263726522;-0,0733821720692246;0,0157891812342169;-0,422539610379627;0,103682594654934;-0,226753154176638;-0,0510848716604919;0,45613502336486;-0,359172858232247;-0,0788186148641717;-0,210903582028534;0,0889584941738092;-0,407238206317294;-0,394743105347614;0,260504025854405;0,230370782655836;0,29232484278843;0,236139473382449;-0,0239722787048539;0,278516720411608;-0,466560704152361;0,47789599605738;-0,489481537597944;0,380582714863393;-0,494780909733279;0,0417376200397208;0,475484124839066;0,451136675640539;0,433635549588891;-0,38039698446188;-0,191424502381787;-0,396862272125139;0,140048553533875;0,192664081087645;0,252886692412611;0,0599396617896574;0,134502779987875;-0,165707039025476;-0,140830315947919;-0,345848519283276;-0,00294167385573579;-0,179445941317569;0,453765226040857;-0,242991547446228;0,419957281053046;-0,132858022410822;0,415922856384852;-0,0817629734900608;-0,163577384624433;-0,460704685170532;0,390152474348504;-0,428473224364441;0,13619683060618;0,065445942136201;-0,285317755204308;-0,356594259783902;-0,0839006344712808;0,135206466370824;-0,427758700646348;-0,438055025384787;-0,202237279015704;-0,00222154730103052;-0,47750052622403;-0,478775873770367;-0,387394112482385;-0,314041309903395;0,448909940639935;-0,0999022874049387;-0,147629797760225;-0,299435635935252;-0,404131997332038;-0,0419681181860939;-0,123030210669632;-0,178123759421578;-0,218541605732656;0,212885237165208;-0,475869229983477;0,253510009848285;0,460625433810346;0,138077112677543;0,125814763654868;0,0572470983291264;0,114714060264972;0,394340234759422;-0,270549458810384;-0,262951278017345;-0,0330591027313187;-0,425397388602326;-0,0220181637080471;0,109480952196513;-0,356159703739062;0,499296313617051;-0,237948338379128;-0,202775290563132;0,356388759732427;0,499279873445295;-0,201945415093538;0,432541099811225;-0,355597434963844;0,233998590956441;-0,0817679630507566;0,0158251437897911;-0,434133175729836;-0,364141748689181;0,443427312161507;-0,0678794074654018;0,194556986305191;-0,185679409972243;-0,216012452131143;0,00179700763048463;-0,380725029800425;0,162589355680435;0,174581032560478;-0,0658358133238907;-0,0638697890396555;0,24051562265517;0,383064392433997;-0,371840760983453;0,291773585040017;0,375557165534961;0,219017792827924;0,374307329242261;0,422115876303108;0,242889250043262;-0,443275932196191;-0,403428310949089;-0,304019779806966;-0,4202549201065;-0,034512519154005;-0,217821479177951;-0,0851693477412543;-0,408410329794702;0,109107444812128;-0,273373157146095;-0,2801549242717;-0,390010380134923;-0,00861972594103766;-0,0211441910458469;0,450912922597915;0,297329948655018;0,0424917356774638;-0,347379692759076;0,290615063528817;0,476184828661468;-0,00979401800306234;-0,0187490594194965;-0,175284718943427;0,327887474944763;0,361094498476523;-0,384126862922742;-0,383784518988703;-0,330104654110085;-0,359232485228792;-0,231154600498804;-0,485019201871482;0,0439247077069826;0,0937092674866827;-0,177022425773098;-0,42086581649299;0,346855623110596;-0,263859627658436;0,114811906411691;0,348833109181762;-0,498190972953192;-0,413033644628261;-0,472314700005723;-0,446518089131693;-0,0520458102934276;-0,28568088905219;-0,173859408904733;-0,250864651403792;-0,0957914165201557;-0,322753683581368;0,494443636384999;-0,166934570142503;0,0663974855869996;-0,416307734286556;0,44593104764164;-0,247316731953675;0,0754731272233059;0,271856407994338;-0,131907254751728;-0,281349418583023;-0,150385656231263;-0,334036960189248;-0,255064693631169;0,45082215543409;-0,159737954689068;-0,288353955274613;0,175920368021317;0,0162803523783946;-0,331597300167939;-0,100278374552856;-0,395942700512681;0,0611895763134536;0,427679829265773;-0,196212801940838;0,288806036482009;0,389218473289729;-0,0374793179973398;-0,0722309702878031;0,376761091350001;0,113568363996953;0,034953907381256;0,36673778848105;0,212006897531453;0,492649029471282;-0,353676121613791;0,435779969643699;-0,0514166874584819;-0,0397675580064615;0,147778219845043;-0,429705693819423;0,00366105628370361;-0,425000784883742;0,368047627093293;-0,103838675005286;-0,000781234586975155;0,335845987236056;0,342031049002908;-0,423136855439812;0,213219865557374;-0,263691855018815;0,0383987429264927;0,309860238716873;-0,419267351235853;-0,495513041967299;-0,426810983068687;-0,0667459399284543;-0,0946143994082764;-0,237389712472162;-0,205113770768565;-0,443287425648089;0,290162586043665;-0,352295902488891;0,395095316644337;0,254524381251319;0,183696674035721;-0,0171234447123126;-0,046043857720701;-0,247713723102451;0,304498277047881;-0,0955179243327667;0,263062732183869;-0,284312073972221;0,368502132533352;-0,401891606348516;0,39606056916344;-0,470941915628939;0,193141949220161;0,0315185042710595;0,304568432646137;0,452960049245954;-0,452812575713178;-0,114342462557527;0,214549164154823;0,140452946368816;-0,42483037892954;0,225093668664384;0,286005139716903;0,207519939498752;0,41946001253997;0,213069818314663;0,0303943690519753;-0,31402697498632;-0,334653787237897;0,0910656454931319;-0,219868279863088;-0,144043041227405;-0,320096101528078;-0,386476754158026;0,212464650958993;-0,483657789874663;
-0,118110155043244;0,0897447721053589;-0,227635132487693;-0,191262210109859;-0,0267545872026843;-0,177289183101286;0,441358106183521;0,482624255112663;-0,391573611130739;-0,455869067439748;0,240112110851385;0,373867096320664;-0,041958145118299;-0,158073820014519;-0,490474849934911;-0,095494951398808;-0,0668450666437135;-0,245357629724479;0,179354760180858;0,458603005371337;0,196871415570784;0,246436202780547;-0,167173735642421;-0,408571541266782;0,374087706615258;0,0770897071701893;-0,449658286734325;-0,22256351295978;0,317976673514571;0,0401036103908455;0,349154185899139;0,0796187033781869;0,319053853312067;0,288226222520799;0,0710702042891971;-0,0425573478185373;-0,386707330069834;-0,0941886257353186;-0,3327924664285;0,252458804171746;0,283735562480863;0,30338088460424;0,0990935506294917;0,375329079979718;0,472957707463278;0,156527272731311;0,227931170131979;0,323420032776622;0,0815404954280428;0,37562667153572;0,422802025416308;0,425261528196401;-0,0658315143388843;0,253861645587656;-0,180529205445447;0,13545364217621;-0,24308149225222;-0,319063591220911;-0,0653499167251168;0,396155705627126;-0,227630896366961;0,163921619143301;-0,335352418401908;0,0683227784784152;-0,305023253338888;-0,339506592526802;-0,445186756991403;0,169815632360901;0,270855975696284;0,0520824978836265;-0,208787621328974;-0,472656440908395;-0,412565163295979;0,426895956009112;-0,325132557109526;0,393490530966544;-0,352657347848945;-0,0425028156221391;-0,38152924873006;-0,282439566116053;0,34915853703821;-0,273078319510947;0,195895991612177;0,442350001978851;0,117301584974537;0,423892657702739;-0,354549782282929;-0,434807792275589;-0,0312445720337539;0,435616562112987;-0,299475855566317;0,432356261151077;0,471161290989798;-0,228948172055626;-0,0199102994612932;-0,380186056662438;0,138733303006149;-0,469229227848923;0,180352333318606;0,31246429999008;0,101714029722714;-0,441884462228922;-0,447435942919662;-0,470542002455584;0,0844142928646944;0,395458466324703;0,33782669149238;0,00727252965200342;0,0789942026971813;-0,0740197364119905;-0,0118890099748452;0,299421323369919;-0,437534342490851;-0,282910350609063;-0,453002831411084;-0,454552576856014;0,468025627531123;-0,277702420380759;0,451021193503878;-0,228915911041627;-0,484956810243873;0,489621035284186;-0,298939795605345;0,335239413583297;-0,148441646550056;-0,141143882480051;-0,443817731898193;0,316383008759647;-0,0531937445295945;-0,444946500447088;-0,245242772039605;-0,383428120000022;0,277144851059255;-0,193993548720141;0,115846404161233;0,291042999267133;-0,325642376591285;0,166437994067761;-0,142064290885843;0,221843118649834;-0,413934033789641;0,138177688065068;-0,0138019949727701;-0,457224835621763;-0,0524944279121675;-0,0988971789362362;0,369890603641928;0,254071641598862;-0,275945340644543;-0,0653577226052795;-0,348211684193561;-0,0835642766130922;-0,420250421352801;-0,0907317556397672;0,297421110233954;0,112092994438528;0,357055333376422;-0,282675356502959;0,177899644094473;-0,274441824655254;0,339276198222896;-0,478556317267267;-0,439533725818402;0,0239407031442694;-0,328776964372386;-0,128460889974824;-0,477723527689336;0,25645920622929;0,101243245229704;-0,244045830678216;0,371089799735271;-0,198412366536638;0,364361870505084;-0,270821925145957;-0,314981877251985;-0,123134498308941;0,00342303025695634;-0,341714959983581;-0,112266158504536;0,45045553238618;-0,0110344861219798;-0,197889373497055;0,0923283494041899;-0,487836021924315;0,403265183746473;0,338321504573487;-0,46317769864722;-0,132123393300978;0,00858534104590558;-0,496246590277295;0,43398766589071;0,457032979911674;0,488538349973288;-0,367622466230589;0,382566920426938;-0,435377716522374;0,0777114138834697;0,462257301882961;0,371552128750622;-0,424033537937344;-0,1211736512469;-0,386568602587361;-0,347171603630842;0,468100490033673;0,0635524776594492;0,350200682343077;0,0520738528818236;0,350571503793155;-0,275749878387782;-0,0794443914571052;-0,391330035818429;0,198770293360003;0,329590802001576;0,227444111708293;0,236592661466726;0,0371655717199508;-0,0708846666714571;-0,451697703894087;0,120675519397797;-0,167098468945873;-0,165283191327603;0,154399865611643;-0,252126134816616;0,0974898355069989;-0,178033496568926;0,414056819823597;-0,186950716509926;0,231984336735673;-0,153388845572895;-0,379604160729611;0,299154087807589;0,0411657283739959;-0,213267088734204;-0,188232620567192;0,0716291836330804;-0,124465883534619;-0,350717769866212;0,124227859370517;-0,0513884995837642;-0,446935498596605;-0,213752348308336;-0,313749202440376;-0,356373514913196;-0,411970267496989;0,395083445541134;-0,264782627469293;-0,372557822089902;-0,238905761735004;-0,104215127697315;-0,154598651293013;0,135506950149083;0,0294091177775567;-0,158418217514836;0,0386505976964955;0,241249653390259;0,224426483141457;0,365557532229255;0,0553385608621587;0,1461339866026;0,149495657835852;0,0371513988530037;0,32008951614615;0,00396034936605039;-0,39614571765817;0,121401520735306;0,0675042358075754;-0,0879626179057931;0,017823422568768;-0,344185071924788;-0,138941454998656;-0,112116658413837;0,304887473958026;0,0996907956896773;0,0676110179944015;-0,453346120637537;-0,351533988887227;0,010773380524839;-0,340155867319627;0,202406389965865;-0,413250869099633;0,286614641913499;-0,448044954774922;-0,163800535567012;-0,498790194279882;-0,0151111108786944;-0,230255029969967;-0,300416054111168;0,248082313569301;0,070517726042549;0,347202700491623;0,00997658423612668;0,0939436692716291;0,478093872767917;0,299115842580384;0,0159131025503916;-0,0338418644544863;0,182290448193574;-0,460227797255026;-0,0333717882322948;-0,172420790266442;0,3231799904365;0,10961875534133;-0,394720689810217;-0,465273672698659;0,457518007120824;0,330619476191057;0,429718322087879;0,273970764490762;-0,00800328166596742;0,0927836422774865;-0,286346897383382;0,205713399548881;0,352932170896294;0,059384855702233;0,362881015922353;-0,0148036463720741;-0,0161099482868379;0,00275054364593263;0,118965393220524;-0,148343449294727;-0,132079710081257;0,163955068524906;0,447305696526219;-0,191387772416411;0,351081960765217;0,293939672314534;0,32679360119011;0,300574953109294;-0,44830208455599;0,0804957438169494;-0,0338244370808007;-0,0289988222201349;0,193215920912668;-0,125172819767693;-0,236430859536133;-0,323004113427831;0,446675735035295;-0,198526862868353;-0,456308201400707;0,154269412930249;-0,159973352057847;-0,07438681860193;-0,243914404764732;0,477734083765063;0,133549597875005;0,304263184687245;0,241011498375335;-0,0812909829343161;0,43623482665803;-0,469283251077534;0,482268083832352;-0,320460095452359;-0,0791931904755501;-0,385028338937568;0,459658919814815;-0,340775078088406;0,162313058815111;0,296667082606194;-0,316355633463876;-0,336421665193709;-0,496174124999053;-0,370856631021414;0,222272849046752;0,411500974517083;-0,373391920641713;0,242651924836753;-0,487502521363787;-0,0218950093360129;-0,204184284761634;0,185885129350184;0,0385206185926313;-0,317583085418485;-0,0409412549533608;0,464695980290275;-0,48837009723688;0,442307108520673;-0,0921305267103624;0,469571612761156;0,175062629708584;-0,453181223922028;-0,447071826060802;-0,0919154158755743;0,364340126451263;-0,479018833478456;0,0982276599845978;-0,213364341628442;-0,449805631744585;0,0782442598502358;-0,0848317395825087;-0,395655781447727;0,0146828277570581;-0,3499913475709;-0,382171229404477;0,380113463793003;0,150443537929302;-0,289116721036433;0,203340332351318;-0,155415379281815;0,351126004406775;0,390897673038253;0,291765706051032;-0,237093492288652;-0,377106698172682;-0,249650302692154;-0,00780386967016566;0,299851169250836;0,220481159501002;-0,0438891707658252;-0,396658241700688;-0,482648188705858;0,251355448621956;0,192741446053954;-0,37839554710239;-0,363174409541848;-0,389349839132908;0,0957412908765214;-0,235196757472677;0,201291682525208;-0,186726685467515;0,339972420986729;0,192457556581338;-0,0657467812140224;-0,437063269753504;-0,308528503313907;-0,328797698406874;-0,111488033836469;-0,435411856014008;0,0789452812536365;-0,185747557639027;0,300746623799553;-0,261033223830645;-0,436715147428548;-0,381554391645619;0,284164956670331;-0,24494692997306;0,29002166622785;-0,214808717702892;0,113990429143417;0,0287850361917098;0,298376490733762;0,0661544988705565;0,0940835390212403;-0,0250974984490767;-0,102183550876651;-0,147011230069684;0,321941381703104;-0,47159580046851;0,481003180137371;0,26946330292591;-0,44529775294722;0,446080036436245;-0,49795135017389;-0,4686886938143;-0,488846416579954;-0,301559883543085;-0,142487512734946;-0,300030222535147;0,431421805141224;-0,42085260428528;-0,396315835833697;0,235263025264844;-0,358464121752635;-0,358141613126798;-0,19740486550024;0,278385035124787;0,188070596050504;0,0742958376995734;-0,162560503772721;0,381772520431211;-0,179371505360758;-0,189449991420587;0,150812813383906;-0,327493353666502;0,0148968237987239;-0,226182077883828;-0,401625982439903;0,459350717235054;0,165120281123147;0,338482726755777;-0,150739080109978;-0,139892233367959;-0,416415036151379;0,309481978327726;-0,240449804691807;0,354666587363308;-0,263081873656754;-0,468026453614247;-0,392707975065665;0,0857248402134165;0,397540582761886;0,0900518887629974;-0,146230522844116;0,0348430334286964;-0,0748991279745936;-0,436886534531082;-0,0753813793768088;-0,0477748478519613;-0,327692632948837;0,119431413998563;0,164918173879813;-0,25235445599647;0,190964703304211;-0,40076934029384;-0,0511651917133318;0,244152238473367;-0,204732776947661;0,329542003492611;0,0164144823869757;0,237335661303874;-0,399933901103183;-0,10183822997;0,034849496341706;
-0,407060921614552;0,229886475824698;0,243576397534263;0,151678061416223;-0,167946100080361;0,382308191565009;-0,0520714528635477;0,041466908781541;0,156097049664751;-0,0329961872347613;0,251714656013863;0,484231937669326;0,230576605876245;0,45678053142353;-0,384030220044791;0,247405774308092;-0,0482166416701938;0,349199301492981;0,146148865412059;0,287043350183891;-0,454311132875416;-0,326435447124036;-0,398384624113508;0,16914306332783;0,484354304142461;-0,139352829958942;0,0153979568348257;0,0593993643109684;-0,0926238771493658;0,0155590639987769;-0,130043636369539;-0,0143412586834008;-0,000621187268114276;-0,444797607578709;-0,239169601229564;0,304956557603998;0,181524474491144;-0,088564595947305;-0,407435279296448;0,0699169605830298;0,224378819914711;-0,422035494782978;-0,491178875784939;0,280641731238292;0,439250047290348;-0,385001277963166;0,218258202410423;0,287371707049837;-0,32070255690287;-0,41786377081548;-0,43536887594283;0,388136359810893;-0,0460827665152413;0,111118419846109;-0,0108393707828779;0,419374525509483;0,128271099938206;-0,425566665793567;0,167323757273761;0,471406729878581;-0,133089765269817;0,388529182825484;-0,365909214069093;-0,359462014334026;-0,402952550865222;-0,233944085302737;-0,0151468750625601;0,175374213454954;0,195950132653094;-0,188986777648789;-0,434118700183052;-0,459652045722889;0,256634580789429;-0,423768095170971;-0,43733546973082;0,467724361907562;-0,335256571339097;-0,179026355351799;0,229893016037481;0,369355582105627;0,142388967630635;0,228026249784988;-0,119898078786162;-0,174760106333885;-0,0490720600583926;-0,0181799961804319;-0,468258492168159;0,388260392885776;0,0660417632041693;-0,158544126739048;-0,323314542334208;0,107091140284711;0,244111646778933;-0,37884200917503;-0,296993274147153;0,335849637089227;0,443873719286115;0,368283138549087;0,183594282103513;0,173194132593085;0,130145597099394;-0,45711601104453;-0,408578425603257;0,368284220745919;-0,483745070632428;-0,475716830219942;-0,368498220978537;-0,12231467134427;0,0484538895769295;0,0214362673095596;0,254631096848581;-0,192702544709995;-0,155459681831049;0,297968175168134;-0,170982237752053;0,138883984945195;0,00842726161164564;0,308850892264792;0,189610045724367;0,11522744531521;-0,265685593134577;0,0965927320516634;-0,390667549749216;-0,145505740607859;-0,365672235314582;-0,041209840467763;-0,203763692501822;0,135476589964459;0,373225178976182;-0,273185106820047;-0,476149357378552;-0,203539709888184;0,137379362544687;-0,443301116555604;-0,260790014993767;0,0995049786751647;0,136604675388245;0,0118177004679189;-0,191015035701457;-0,073355229838451;-0,149681775201895;0,154056179176111;-0,160193496691153;-0,45539450410539;0,086824776412372;0,369388002375787;-0,23744917788424;0,446143471610799;0,292140228577023;0,0641227409076517;-0,172577624522419;-0,364977172978677;-0,32132690717528;-0,431633163211696;-0,0611202742723377;-0,466447134952269;0,433551538704686;0,236927315004602;0,233956456060501;0,0574647698353347;0,228046862281881;-0,00397481094299573;0,00446014967954722;-0,178361003603023;-0,00241437531188798;-0,0418291932632351;0,169918092745318;-0,212158565275445;0,0587581901619016;0,229512783572782;-0,49772069044305;0,496609561143727;-0,000134072033750876;-0,237034724437182;-0,235090779482895;0,0802582276893119;-0,243213771257183;-0,435273045643826;0,26766948297977;-0,235060237690369;-0,303760662583523;-0,149907164112622;0,343336361387436;-0,190897561931469;0,399392517702371;0,388827815600125;-0,382212802712905;0,0690125257563836;0,117819157716734;-0,294342880041498;0,165953439970479;0,399677360383643;0,277861244407418;0,251520194463208;0,198597907879668;0,354293035741101;-0,350403970503436;-0,48183249308813;0,0470198712064978;-0,371346030324393;-0,300530090369531;0,474709387391205;-0,112614718551102;-0,437372554995759;0,0618434313507021;-0,169187185666145;0,135156899055073;0,415707817261903;0,303457616271198;0,35862149803835;0,276766636304914;0,368824584348511;0,469257832024832;-0,0309833062491302;-0,138774567581143;-0,122045973605498;0,152688827669569;-0,304642288388983;-0,0777535213053941;0,108757809087987;-0,15961639055033;-0,399094433011065;0,170022277007821;-0,1468989297966;-0,436440656397697;-0,397398050826694;-0,281251683263691;0,248345733503041;0,0643673676831495;-0,0893838152239955;-0,0693378018072517;-0,261381278169053;0,0177070831496767;0,139015513304163;-0,434530147320838;-0,278470049974727;0,462707554438481;0,280708916383194;0,247259006717829;0,0685797033685165;-0,246329083454948;-0,297920619974807;0,265554909485185;0,259197659678384;-0,0711095163464125;0,297128855621968;0,430419528358811;-0,191155449343452;-0,109705237955649;-0,179356118514834;-0,298395791928468;0,454238317885547;0,095921028217264;0,438262062118511;0,288270360225938;-0,401435657358466;-0,195312889616616;-0,465715788754502;0,499068101401938;-0,0407585178226039;-0,387935502402454;0,386811165552033;-0,148659550421247;-0,107158568504806;-0,072040700154398;0,0381479144739676;-0,148882498801165;-0,16975768127933;-0,0964531589282924;-0,360304517606415;-0,0847535280439786;0,371979911286375;-0,0519012951068121;0,353666775326089;-0,144913107457065;-0,361695770575523;-0,16464934249625;0,410824617329438;0,424210586549812;-0,233569512019665;-0,327817579185505;0,409903766079761;-0,14194902854131;-0,256276513802016;-0,290988023295527;-0,0235761196927988;0,142697693613683;0,079445021031166;0,350745153078225;0,466905510037628;0,416842839641889;0,428423343192983;0,281640814981256;-0,211982475459567;-0,0434847942290291;-0,133140249006981;0,35073893044644;-0,127286522010009;-0,168761640167218;0,39074256917962;-0,0539886455768667;0,100177209638142;0,40529770958484;-0,249400720349234;0,405397409529145;-0,170375703214843;0,0061396129923591;0,242254252891175;0,0831751695755754;0,149966130801461;0,263213685137785;-0,106137506946054;-0,389926375304315;0,232637613421603;-0,212940938637099;-0,297839268482215;0,028760194093343;-0,392383036619231;-0,316170545209279;0,451535419538401;0,395450220860285;0,271672480167669;-0,0205028343575554;-0,0633586689659202;-0,277147357248304;-0,0131768712369618;-0,409660903694882;-0,339918819647245;-0,102848430444882;0,488227141549917;-0,212434701021963;0,462637179513759;0,079586257496656;-0,466531982629808;0,320419133557202;0,0720052111763532;-0,495393943505079;-0,392548308192076;-0,161673923331161;0,379387679919315;0,470284267314842;0,400443440722508;0,496269851455591;-0,299220977723236;-0,296308175100157;0,0229803465879431;0,318349718497298;-0,450996798440347;-0,499041536822469;-0,245645525746814;0,338099556899676;0,24312196706567;-0,31111597680073;-0,120297059705619;0,495292348319335;0,174338874255465;-0,379319956004303;-0,0313436214492394;-0,47225336310093;-0,0814257192338936;-0,260714799519961;-0,153941567360396;-0,154897316663944;0,0949480280256588;-0,137599168176576;0,300576505624026;0,31427623555729;-0,423394392674507;0,412218479864401;0,215053850186548;-0,302445324977136;-0,0786914977145807;0,26929088671193;-0,195558225128594;0,481251152223559;0,495006780137777;0,275402628712078;-0,22128185663432;-0,267050493865763;0,199872296163753;0,168473410265741;-0,458664105254535;-0,340877282824776;-0,357202904698068;-0,349872415349759;0,0444433319123664;0,273753156314489;-0,300116682797725;-0,461824330949143;-0,353919740698263;-0,0486748328193439;0,0359496779441599;-0,420294945091147;0,419751795902733;0,140102479439276;0,124225834675238;0,0553407573864519;-0,0986781765700682;0,33837819045334;-0,0968846807241834;0,208704111030653;0,241744111171804;-0,363215278304748;-0,214095387009017;-0,443200200769678;-0,0832089453857434;0,47383108035374;0,384442248327864;-0,101548211929178;-0,499714431818442;0,398936245543387;0,341961900630017;-0,264293127583476;-0,172125659264683;0,250100870500366;-0,302050694265426;-0,313064284535621;-0,297694411965876;-0,0551795566245818;0,317957499911057;-0,473176650690463;0,114392918355015;-0,461570061725364;0,266138220562664;-0,236271316994108;0,161604997078704;-0,158396552623434;0,349539090809198;0,16433929543213;-0,14297468245168;-0,0603339772486752;-0,125919194717854;-0,0596600470876601;0,32983418685842;0,4911681851331;0,426729299093936;0,404551173050213;0,373218104184241;-0,41400270392839;0,233336530035984;0,0706122515586262;0,389310907986625;0,301431529131453;-0,462109899130701;-0,25285598624165;0,109363266550639;-0,199757194472364;0,251830714173536;-0,330349074597633;-0,057846826295297;-0,0627098807891411;-0,146964830647672;0,456501380054514;-0,479579309457717;-0,123708030033721;-0,405688807324361;0,203314172897168;-0,129353498867412;-0,477824070014909;-0,104805197848382;-0,424812392762309;-0,375708010455457;-0,279897047104266;-0,458573529477498;0,0606195454302335;0,0248554402612408;-0,0983780522823232;-0,0941273144418966;-0,163293844397782;0,323371571406429;-0,20660186731564;-0,186282388719862;-0,383691708037486;0,211483913339434;-0,252654751647569;-0,362487558677088;0,312961389223561;-0,499460162594663;0,0189942068043137;0,154365416455253;-0,138637808448932;0,0897727332030296;0,179888165406831;-0,277813878272573;0,419735198337461;-0,413369146601003;-0,0824205747723675;-0,0800807376299429;-0,046457783107859;0,396856992457461;-0,276584873803232;0,033904671917625;0,35104217419915;0,190802493919992;0,158148922798293;-0,0536797379859163;0,169207955090892;0,260005058608952;-0,0227294445609345;0,222288573497109;-0,292258681167038;0,394370119969533;-0,0848754414286816;-0,153720646004062;-0,351244958979657;-0,37642749206928;-0,263273122610186;-0,25498253328492;0,273075442189851;-0,261220471356632;-0,218650196547923;0,202774335491832;
0,351652294328274;-0,132189486470162;-0,46616738939945;-0,0145851259653387;-0,0555961758622882;0,497916831168307;-0,37830872781496;-0,0260113079687633;-0,392723984966392;0,48170268534762;0,452330468665962;-0,0601508368552434;0,0999564452096617;0,259493460766735;-0,0373245629190116;-0,0744942019574783;-0,446665009458859;0,301024986338348;-0,0316955137679798;-0,44704366938539;0,0232692819662714;0,296705633307204;-0,0533759023777097;-0,0330079284184649;-0,325351825368289;-0,166391188589107;-0,426568919292916;0,296162690406741;0,349903976009183;-0,327438041487447;0,146843820180206;-0,285237311751227;0,115507189005384;0,0206407907049362;0,182252377589351;-0,0167683393306883;0,156969883319442;-0,327265951236368;-0,498083562123628;0,171291123922584;0,138313786423911;-0,496718136592171;0,115012558463501;-0,273961366514657;0,442039651303571;0,475275395426562;0,246322908786276;-0,110738419746393;0,160897070849732;0,311221079347292;-0,308317523826062;0,472050455851504;0,270475042411347;-0,271606527162533;-0,32049494647444;-0,44505333897893;0,421186415907548;0,066840539019015;-0,18923330059705;-0,389204987273181;0,424485750461223;-0,174471418221701;0,124084716022054;0,434714056521055;-0,165141134832586;0,237567780417189;0,324341974139373;-0,420684345495274;-0,422758916822616;0,479443776411677;0,26853591472308;0,380600941777509;0,299108548461976;0,297013362309436;-0,0853574558093014;0,0199874185584427;-0,318306925156297;-0,279414535863052;0,0249524202779645;-0,300627220794851;0,0872859026246173;0,184169500453477;-0,364734380442991;-0,46131710333811;0,480879482338615;0,174793364328702;-0,055712354162574;-0,112886283832084;-0,158864262820624;0,127305716568281;0,0620452447617638;-0,409870655699573;0,361967349360682;0,391121425149553;0,246805373461361;-0,187214795354388;-0,120802852614225;0,180298501942446;0,391179768317928;-0,295528129113618;-0,349066578712811;0,16700725428155;-0,187979502923777;0,181453294438055;-0,457314835375787;-0,188918465603571;-0,327058092610472;0,473461680101911;0,313750928646769;0,159517634967117;0,373253586177367;0,2006009517706;-0,45811188125895;-0,388606079802199;0,0235091101022014;-0,259683749992253;-0,30973703777871;0,0854018193601639;0,453834574182441;0,160065500838713;-0,206719865420237;-0,0627717420285436;0,238179917325349;-0,0500646333908963;-0,082601468350087;0,178406570422652;-0,481366407583173;0,407987123312423;-0,449792011151925;-0,398142660454913;-0,359209728827332;0,00139457290125755;-0,170594304180981;-0,179519450608417;-0,45156064208204;0,420278648343067;-0,127850996622746;-0,0461876748810465;0,495997732037677;0,169797947942185;0,00185145693917366;-0,0291740342644854;0,0733627875211476;0,181618102212259;0,254052130390914;0,361444292991163;-0,451758774440623;0,250573429162881;-0,132387684952648;0,00648912345361385;-0,377477757575679;0,293795328025611;0,226463927760005;-0,268885732520784;0,411191736306619;0,213705163315733;0,428827336956201;0,362085130467119;-0,235945237211858;-0,13572140579844;-0,207552058020398;-0,235045215922895;0,423253691253836;0,211893589101682;0,0187273637944494;-0,128140986723891;-0,128804744048419;0,221407569349468;-0,43704543772016;0,103230461759134;0,368167246630493;0,236450637102337;0,0894040873224866;-0,215963373759744;-0,341785956100461;0,322454168844248;0,363865470450309;-0,443438184886909;0,195883236218189;0,0559542386587496;0,130165344863276;-0,231939836746054;0,0403748082650708;0,0437188653944613;0,479335097120765;-0,153005056852943;0,274930645141253;-0,401708571660197;-0,0907111869150359;-0,165265805397772;0,491451311386866;0,0100638729101344;-0,310242437669189;0,131719137836117;-0,122649994037417;-0,263103327137932;0,0475722744816786;0,361469198419465;-0,337109261582191;-0,117806882885195;-0,00975096296041783;-0,173166343790091;0,187618866883041;0,264381853288217;0,138321876823121;-0,113928394678015;-0,295608759296876;-0,0575726984802507;-0,427099776420323;-0,411262432537629;0,349839692865424;0,37226552184311;-0,33379810575107;0,208100524129393;0,234113249338285;-0,475612221274344;0,224579975812035;-0,120465174140625;0,232558491980917;-0,328267579352608;0,0969283681348564;-0,227096172388222;-0,187881243735497;0,228220367677612;0,111779150372268;-0,141896626279641;0,0466930747715258;0,45768494948637;0,406686620277672;0,421317371037471;-0,22511810563743;-0,497603727969156;0,393671076695282;-0,186309880896616;-0,434294798380833;-0,196668311346633;0,0804412963709055;0,275992954976853;0,405396988571341;0,0932634917987806;-0,357396297556067;-0,167496656378497;-0,474608795239874;-0,179448754377406;-0,0151054982631958;-0,380814210456244;-0,156138021338795;-0,0183429617985817;0,397605888497832;-0,147037772763072;0,0123166970500335;-0,331962551377696;-0,371089293561452;0,491158317770417;0,285264748979949;-0,282654790572196;-0,485285100054594;0,459398499205428;-0,347397297084051;-0,219781496897238;0,339378530550459;-0,253293708783246;0,035740681242077;-0,348417147457794;0,313855673099801;0,34744342083458;0,478594445147828;0,352511775145546;0,142395322510225;-0,0692184393150818;-0,0560535176452499;0,448587020835181;-0,025862162711966;-0,360704999817864;-0,470871281796541;-0,235574975486647;-0,252487377148349;0,49156751064191;-0,256674134059192;-0,00740663917148793;-0,485758604940846;-0,434963963429892;-0,439920939011462;0,0537243930407447;-0,0909993260125627;-0,393155554259734;0,373485565592295;0,402512758924865;0,0284253701234355;0,348359992191363;-0,211383211292039;0,121042797165477;0,123390252060904;0,125178485468579;0,253884961248322;0,395897411227178;0,296762662379426;0,37380835221792;0,00669557252279274;0,137451080902224;-0,359408655604072;-0,00864979648434083;0,339261715691193;-0,0331756721870861;0,409015744882177;0,0637296762148523;0,19389961133427;0,489615706256412;0,462029599566958;0,0208397244665957;0,469832586576153;-0,476852610696504;0,21607263326462;0,160009342087437;-0,234022891956392;0,274342493980351;-0,313372769771783;0,482016288201332;0,242582178554769;0,207011227359535;0,473957855242285;-0,423918313777036;-0,17591359497789;0,294035330318862;-0,357835228023043;0,322903685189273;-0,174803231225723;0,348959351819455;-0,114589961066185;-0,366768693023719;-0,0323376378660731;-0,126295729366269;-0,0151280618808828;0,105874785038584;-0,147997983567416;0,0228911915434949;-0,274225679121085;0,0932547331756236;0,144708648158567;0,345270997772585;-0,0870551655940037;0,383869859335883;0,440483159357907;-0,49241435434316;0,37852740561521;-0,234530600595535;0,404970163900857;0,463380909973467;-0,140798622575029;0,479542467267971;0,209270180998962;0,314746374178094;-0,368773826336848;0,299684345163258;0,163493225659939;-0,435490341827036;-0,332736201506451;-0,454773614627669;-0,175340444164043;-0,413887940307096;-0,261467092559425;0,344940259514814;0,104205667322597;0,328798292590677;-0,446822637667331;0,0961283159424217;0,0382754511843787;-0,389802151773964;-0,191992674345147;0,243085916500113;0,0485681731014365;0,0933724970525934;-0,162692359957235;0,397311180782184;-0,205933607046461;-0,409912004093599;-0,364401473134943;-0,18349924063473;0,415507924703652;0,376695372572493;0,417933521288416;-0,13818414119919;-0,0102420256055156;-0,0941324283341562;-0,0760388740226807;0,152915987955833;-0,25752190302942;0,185187592955859;0,442381559378645;-0,21250764174038;-0,144372606950054;-0,319452064493416;-0,231404822660333;0,058596588465663;0,10673809033201;0,0680045748911819;-0,220335807986714;-0,38831513323277;0,454408283324171;-0,217600910327211;0,227193948220086;0,294772315674821;0,155373584318614;0,116115460924858;-0,0690257058334657;-0,384102316053632;-0,0225612658646709;-0,266085007119032;0,00561795220971939;0,0734052297535377;0,428911131307907;0,350763039128279;-0,370281539331321;-0,052035816736536;-0,331821461595512;0,376717048639766;-0,14481771487967;-0,301661904343246;-0,0951628333866423;-0,099738625623164;-0,146349781028158;0,35308785822852;-0,332183711152609;-0,479485032604767;-0,112541476549833;-0,131979762405148;-0,175222680287074;0,278711051577102;-0,209426909549826;0,226061818062357;0,310423803893115;-0,476086339902173;-0,137907523958901;0,133108835030863;-0,350498575647594;-0,376838794386405;0,206442274482195;0,373642513469626;0,474893277499309;-0,191936557969049;-0,324522746179496;-0,491436895910388;-0,32043035925386;-0,131023670374892;-0,141418773048287;0,00486435392166695;-0,449170525162095;0,320630994076203;-0,109581949938825;0,230021041692244;-0,287177710229148;-0,418673903643467;0,206847700153872;0,0541469089473351;0,428748870700946;0,374106089991567;0,12695602682743;0,134858616923382;-0,271343062525309;-0,437045943428318;0,291120364233442;0,198727682558227;0,443341902430794;0,279556134147363;0,262981425860422;0,40499747121008;-0,0113294369128204;-0,00339037436218487;-0,201537241088942;-0,454982667209107;-0,32972522584243;-0,0184602283492965;-0,276555181842556;-0,403226275417593;-0,275215879443668;-0,15491288511777;0,17351821748238;0,298839959222283;0,161933740443519;0,3825941695285;-0,182809237243053;0,00414632563672324;-0,111706998484073;0,0605520487579294;0,0132395282915047;0,229097707536583;-0,182934040056045;0,307945567093764;0,204359964329917;-0,22460466563916;-0,00379482121383529;-0,428416342441186;0,144985575994936;0,411939220927627;0,0169430777975093;-0,0232504287377235;-0,434778798341182;-0,0999864934012231;0,105994903764685;-0,0464162442583667;-0,483806209165513;0,0542198492000904;0,0221682351651453;-0,154599282729719;0,0597462675346743;0,231282518120148;0,357881278199088;0,110073975571466;-0,170637211608997;0,0836617558187162;-0,299412127490813;0,328116067605147;
